Language model created by QuickLM on Thu May 24 13:58:25 EDT 2018
Copyright (c) 1996-2010 Carnegie Mellon University and Alexander I. Rudnicky

The model is in standard ARPA format, designed by Doug Paul while he was at MITRE.

The code that was used to produce this language model is available in Open Source.
Please visit http://www.speech.cs.cmu.edu/tools/ for more information

The (fixed) discount mass is 0.5. The backoffs are computed using the ratio method.
This model based on a corpus of 23 sentences and 24 words

\data\
ngram 1=24
ngram 2=44
ngram 3=22

\1-grams:
-0.7782 </s> -0.3010
-0.7782 <s> -0.2218
-2.1399 JA -0.2218
-2.1399 JAF -0.2218
-2.1399 JAK -0.2218
-2.1399 JAL -0.2218
-2.1399 JAN -0.2218
-2.1399 JAR -0.2218
-2.1399 JARH -0.2218
-2.1399 JARL -0.2218
-2.1399 JARM -0.2218
-2.1399 JART -0.2218
-2.1399 JARV -0.2218
-1.8388 JARVA -0.2218
-2.1399 JARVE -0.2218
-2.1399 JARVIC -0.2218
-2.1399 JARVICA -0.2218
-2.1399 JARVICE -0.2218
-2.1399 JARVICI -0.2218
-2.1399 JARVIH -0.2218
-2.1399 JARVIN -0.2218
-2.1399 JARVIT -0.2218
-2.1399 JARVY -0.2218
-2.1399 JAT -0.2218

\2-grams:
-1.6628 <s> JA 0.0000
-1.6628 <s> JAF 0.0000
-1.6628 <s> JAK 0.0000
-1.6628 <s> JAL 0.0000
-1.6628 <s> JAN 0.0000
-1.6628 <s> JAR 0.0000
-1.6628 <s> JARH 0.0000
-1.6628 <s> JARL 0.0000
-1.6628 <s> JARM 0.0000
-1.6628 <s> JART 0.0000
-1.6628 <s> JARV 0.0000
-1.3617 <s> JARVA 0.0000
-1.6628 <s> JARVE 0.0000
-1.6628 <s> JARVIC 0.0000
-1.6628 <s> JARVICA 0.0000
-1.6628 <s> JARVICE 0.0000
-1.6628 <s> JARVICI 0.0000
-1.6628 <s> JARVIH 0.0000
-1.6628 <s> JARVIN 0.0000
-1.6628 <s> JARVIT 0.0000
-1.6628 <s> JARVY 0.0000
-1.6628 <s> JAT 0.0000
-0.3010 JA </s> -0.3010
-0.3010 JAF </s> -0.3010
-0.3010 JAK </s> -0.3010
-0.3010 JAL </s> -0.3010
-0.3010 JAN </s> -0.3010
-0.3010 JAR </s> -0.3010
-0.3010 JARH </s> -0.3010
-0.3010 JARL </s> -0.3010
-0.3010 JARM </s> -0.3010
-0.3010 JART </s> -0.3010
-0.3010 JARV </s> -0.3010
-0.3010 JARVA </s> -0.3010
-0.3010 JARVE </s> -0.3010
-0.3010 JARVIC </s> -0.3010
-0.3010 JARVICA </s> -0.3010
-0.3010 JARVICE </s> -0.3010
-0.3010 JARVICI </s> -0.3010
-0.3010 JARVIH </s> -0.3010
-0.3010 JARVIN </s> -0.3010
-0.3010 JARVIT </s> -0.3010
-0.3010 JARVY </s> -0.3010
-0.3010 JAT </s> -0.3010

\3-grams:
-0.3010 <s> JA </s>
-0.3010 <s> JAF </s>
-0.3010 <s> JAK </s>
-0.3010 <s> JAL </s>
-0.3010 <s> JAN </s>
-0.3010 <s> JAR </s>
-0.3010 <s> JARH </s>
-0.3010 <s> JARL </s>
-0.3010 <s> JARM </s>
-0.3010 <s> JART </s>
-0.3010 <s> JARV </s>
-0.3010 <s> JARVA </s>
-0.3010 <s> JARVE </s>
-0.3010 <s> JARVIC </s>
-0.3010 <s> JARVICA </s>
-0.3010 <s> JARVICE </s>
-0.3010 <s> JARVICI </s>
-0.3010 <s> JARVIH </s>
-0.3010 <s> JARVIN </s>
-0.3010 <s> JARVIT </s>
-0.3010 <s> JARVY </s>
-0.3010 <s> JAT </s>

\end\
